digraph Tree {
node [shape=box, style="filled", color="black"] ;
0 [label="Потраченные_деньги_мало <= 0.5\nentropy = 0.9852\nsamples = 7\nvalue = [3, 4]", fillcolor="#399de540"] ;
1 [label="Алкоголь_в_напитке_нет <= 0.5\nentropy = 0.7219\nsamples = 5\nvalue = [1, 4]", fillcolor="#399de5bf"] ;
0 -> 1 [labeldistance=2.5, labelangle=45, headlabel="True"] ;
2 [label="entropy = 0.0\nsamples = 3\nvalue = [0, 3]", fillcolor="#399de5ff"] ;
1 -> 2 ;
3 [label="Внешность_приятная <= 0.5\nentropy = 1.0\nsamples = 2\nvalue = [1, 1]", fillcolor="#e5813900"] ;
1 -> 3 ;
4 [label="entropy = 0.0\nsamples = 1\nvalue = [1, 0]", fillcolor="#e58139ff"] ;
3 -> 4 ;
5 [label="entropy = 0.0\nsamples = 1\nvalue = [0, 1]", fillcolor="#399de5ff"] ;
3 -> 5 ;
6 [label="entropy = 0.0\nsamples = 2\nvalue = [2, 0]", fillcolor="#e58139ff"] ;
0 -> 6 [labeldistance=2.5, labelangle=-45, headlabel="False"] ;
}